digraph Tree {
node [shape=box, style="filled, rounded", color="black", fontname=helvetica] ;
edge [fontname=helvetica] ;
0 [label="sex <= 0.5\ngini = 0.475\nsamples = 431\nvalue = [420, 267]", fillcolor="#e581395d"] ;
1 [label="pclass <= 2.5\ngini = 0.428\nsamples = 151\nvalue = [75, 167]", fillcolor="#399de58c"] ;
0 -> 1 [labeldistance=2.5, labelangle=45, headlabel="True"] ;
2 [label="fare <= 22.0\ngini = 0.1\nsamples = 68\nvalue = [6, 108]", fillcolor="#399de5f1"] ;
1 -> 2 ;
3 [label="sibsp <= 0.5\ngini = 0.365\nsamples = 16\nvalue = [6, 19]", fillcolor="#399de5ae"] ;
2 -> 3 ;
4 [label="cabin_number <= 43.5\ngini = 0.236\nsamples = 14\nvalue = [3, 19]", fillcolor="#399de5d7"] ;
3 -> 4 ;
5 [label="age <= 6.5\ngini = 0.172\nsamples = 13\nvalue = [2, 19]", fillcolor="#399de5e4"] ;
4 -> 5 ;
6 [label="gini = 0.5\nsamples = 2\nvalue = [1, 1]", fillcolor="#e5813900"] ;
5 -> 6 ;
7 [label="gini = 0.1\nsamples = 11\nvalue = [1, 18]", fillcolor="#399de5f1"] ;
5 -> 7 ;
8 [label="gini = 0.0\nsamples = 1\nvalue = [1, 0]", fillcolor="#e58139ff"] ;
4 -> 8 ;
9 [label="gini = 0.0\nsamples = 2\nvalue = [3, 0]", fillcolor="#e58139ff"] ;
3 -> 9 ;
10 [label="gini = 0.0\nsamples = 52\nvalue = [0, 89]", fillcolor="#399de5ff"] ;
2 -> 10 ;
11 [label="fare <= 23.35\ngini = 0.497\nsamples = 83\nvalue = [69, 59]", fillcolor="#e5813925"] ;
1 -> 11 ;
12 [label="age <= 19.5\ngini = 0.496\nsamples = 72\nvalue = [49, 59]", fillcolor="#399de52b"] ;
11 -> 12 ;
13 [label="fare <= 14.85\ngini = 0.433\nsamples = 40\nvalue = [20, 43]", fillcolor="#399de588"] ;
12 -> 13 ;
14 [label="fare <= 13.031\ngini = 0.469\nsamples = 30\nvalue = [18, 30]", fillcolor="#399de566"] ;
13 -> 14 ;
15 [label="age <= 0.5\ngini = 0.408\nsamples = 26\nvalue = [12, 30]", fillcolor="#399de599"] ;
14 -> 15 ;
16 [label="embarked <= 1.5\ngini = 0.497\nsamples = 15\nvalue = [11, 13]", fillcolor="#399de527"] ;
15 -> 16 ;
17 [label="fare <= 7.962\ngini = 0.455\nsamples = 13\nvalue = [7, 13]", fillcolor="#399de576"] ;
16 -> 17 ;
18 [label="parch <= 1.0\ngini = 0.36\nsamples = 12\nvalue = [4, 13]", fillcolor="#399de5b1"] ;
17 -> 18 ;
19 [label="gini = 0.305\nsamples = 11\nvalue = [3, 13]", fillcolor="#399de5c4"] ;
18 -> 19 ;
20 [label="gini = 0.0\nsamples = 1\nvalue = [1, 0]", fillcolor="#e58139ff"] ;
18 -> 20 ;
21 [label="gini = 0.0\nsamples = 1\nvalue = [3, 0]", fillcolor="#e58139ff"] ;
17 -> 21 ;
22 [label="gini = 0.0\nsamples = 2\nvalue = [4, 0]", fillcolor="#e58139ff"] ;
16 -> 22 ;
23 [label="gini = 0.105\nsamples = 11\nvalue = [1, 17]", fillcolor="#399de5f0"] ;
15 -> 23 ;
24 [label="gini = 0.0\nsamples = 4\nvalue = [6, 0]", fillcolor="#e58139ff"] ;
14 -> 24 ;
25 [label="gini = 0.231\nsamples = 10\nvalue = [2, 13]", fillcolor="#399de5d8"] ;
13 -> 25 ;
26 [label="fare <= 7.7\ngini = 0.458\nsamples = 32\nvalue = [29, 16]", fillcolor="#e5813972"] ;
12 -> 26 ;
27 [label="gini = 0.0\nsamples = 3\nvalue = [0, 4]", fillcolor="#399de5ff"] ;
26 -> 27 ;
28 [label="fare <= 18.629\ngini = 0.414\nsamples = 29\nvalue = [29, 12]", fillcolor="#e5813995"] ;
26 -> 28 ;
29 [label="age <= 54.0\ngini = 0.361\nsamples = 26\nvalue = [29, 9]", fillcolor="#e58139b0"] ;
28 -> 29 ;
30 [label="fare <= 11.496\ngini = 0.284\nsamples = 25\nvalue = [29, 6]", fillcolor="#e58139ca"] ;
29 -> 30 ;
31 [label="age <= 27.5\ngini = 0.198\nsamples = 19\nvalue = [24, 3]", fillcolor="#e58139df"] ;
30 -> 31 ;
32 [label="gini = 0.32\nsamples = 10\nvalue = [12, 3]", fillcolor="#e58139bf"] ;
31 -> 32 ;
33 [label="gini = 0.0\nsamples = 9\nvalue = [12, 0]", fillcolor="#e58139ff"] ;
31 -> 33 ;
34 [label="gini = 0.469\nsamples = 6\nvalue = [5, 3]", fillcolor="#e5813966"] ;
30 -> 34 ;
35 [label="gini = 0.0\nsamples = 1\nvalue = [0, 3]", fillcolor="#399de5ff"] ;
29 -> 35 ;
36 [label="gini = 0.0\nsamples = 3\nvalue = [0, 3]", fillcolor="#399de5ff"] ;
28 -> 36 ;
37 [label="gini = 0.0\nsamples = 11\nvalue = [20, 0]", fillcolor="#e58139ff"] ;
11 -> 37 ;
38 [label="embarked <= 0.5\ngini = 0.348\nsamples = 280\nvalue = [345, 100]", fillcolor="#e58139b5"] ;
0 -> 38 [labeldistance=2.5, labelangle=-45, headlabel="False"] ;
39 [label="cabin_letter <= 3.5\ngini = 0.48\nsamples = 53\nvalue = [54, 36]", fillcolor="#e5813955"] ;
38 -> 39 ;
40 [label="age <= 59.0\ngini = 0.455\nsamples = 49\nvalue = [54, 29]", fillcolor="#e5813976"] ;
39 -> 40 ;
41 [label="age <= 36.5\ngini = 0.439\nsamples = 48\nvalue = [54, 26]", fillcolor="#e5813984"] ;
40 -> 41 ;
42 [label="fare <= 15.148\ngini = 0.48\nsamples = 38\nvalue = [39, 26]", fillcolor="#e5813955"] ;
41 -> 42 ;
43 [label="fare <= 14.158\ngini = 0.418\nsamples = 21\nvalue = [26, 11]", fillcolor="#e5813993"] ;
42 -> 43 ;
44 [label="fare <= 8.206\ngini = 0.488\nsamples = 15\nvalue = [15, 11]", fillcolor="#e5813944"] ;
43 -> 44 ;
45 [label="age <= 21.75\ngini = 0.375\nsamples = 12\nvalue = [15, 5]", fillcolor="#e58139aa"] ;
44 -> 45 ;
46 [label="gini = 0.459\nsamples = 9\nvalue = [9, 5]", fillcolor="#e5813971"] ;
45 -> 46 ;
47 [label="gini = 0.0\nsamples = 3\nvalue = [6, 0]", fillcolor="#e58139ff"] ;
45 -> 47 ;
48 [label="gini = 0.0\nsamples = 3\nvalue = [0, 6]", fillcolor="#399de5ff"] ;
44 -> 48 ;
49 [label="gini = 0.0\nsamples = 6\nvalue = [11, 0]", fillcolor="#e58139ff"] ;
43 -> 49 ;
50 [label="fare <= 27.135\ngini = 0.497\nsamples = 17\nvalue = [13, 15]", fillcolor="#399de522"] ;
42 -> 50 ;
51 [label="gini = 0.153\nsamples = 5\nvalue = [1, 11]", fillcolor="#399de5e8"] ;
50 -> 51 ;
52 [label="cabin_number <= 29.0\ngini = 0.375\nsamples = 12\nvalue = [12, 4]", fillcolor="#e58139aa"] ;
50 -> 52 ;
53 [label="gini = 0.0\nsamples = 7\nvalue = [9, 0]", fillcolor="#e58139ff"] ;
52 -> 53 ;
54 [label="gini = 0.49\nsamples = 5\nvalue = [3, 4]", fillcolor="#399de540"] ;
52 -> 54 ;
55 [label="gini = 0.0\nsamples = 10\nvalue = [15, 0]", fillcolor="#e58139ff"] ;
41 -> 55 ;
56 [label="gini = 0.0\nsamples = 1\nvalue = [0, 3]", fillcolor="#399de5ff"] ;
40 -> 56 ;
57 [label="gini = 0.0\nsamples = 4\nvalue = [0, 7]", fillcolor="#399de5ff"] ;
39 -> 57 ;
58 [label="age <= 39.5\ngini = 0.296\nsamples = 227\nvalue = [291, 64]", fillcolor="#e58139c7"] ;
38 -> 58 ;
59 [label="cabin_number <= 41.5\ngini = 0.339\nsamples = 183\nvalue = [221, 61]", fillcolor="#e58139b9"] ;
58 -> 59 ;
60 [label="age <= 30.5\ngini = 0.323\nsamples = 181\nvalue = [221, 56]", fillcolor="#e58139be"] ;
59 -> 60 ;
61 [label="age <= 20.5\ngini = 0.274\nsamples = 145\nvalue = [179, 35]", fillcolor="#e58139cd"] ;
60 -> 61 ;
62 [label="fare <= 20.825\ngini = 0.362\nsamples = 82\nvalue = [93, 29]", fillcolor="#e58139af"] ;
61 -> 62 ;
63 [label="parch <= 0.5\ngini = 0.404\nsamples = 61\nvalue = [69, 27]", fillcolor="#e581399b"] ;
62 -> 63 ;
64 [label="fare <= 7.988\ngini = 0.358\nsamples = 57\nvalue = [69, 21]", fillcolor="#e58139b1"] ;
63 -> 64 ;
65 [label="fare <= 7.91\ngini = 0.426\nsamples = 35\nvalue = [36, 16]", fillcolor="#e581398e"] ;
64 -> 65 ;
66 [label="fare <= 7.892\ngini = 0.359\nsamples = 33\nvalue = [36, 11]", fillcolor="#e58139b1"] ;
65 -> 66 ;
67 [label="fare <= 7.74\ngini = 0.424\nsamples = 25\nvalue = [25, 11]", fillcolor="#e581398f"] ;
66 -> 67 ;
68 [label="fare <= 7.052\ngini = 0.245\nsamples = 13\nvalue = [18, 3]", fillcolor="#e58139d4"] ;
67 -> 68 ;
69 [label="gini = 0.469\nsamples = 4\nvalue = [5, 3]", fillcolor="#e5813966"] ;
68 -> 69 ;
70 [label="gini = 0.0\nsamples = 9\nvalue = [13, 0]", fillcolor="#e58139ff"] ;
68 -> 70 ;
71 [label="age <= 8.0\ngini = 0.498\nsamples = 12\nvalue = [7, 8]", fillcolor="#399de520"] ;
67 -> 71 ;
72 [label="gini = 0.444\nsamples = 9\nvalue = [4, 8]", fillcolor="#399de57f"] ;
71 -> 72 ;
73 [label="gini = 0.0\nsamples = 3\nvalue = [3, 0]", fillcolor="#e58139ff"] ;
71 -> 73 ;
74 [label="gini = 0.0\nsamples = 8\nvalue = [11, 0]", fillcolor="#e58139ff"] ;
66 -> 74 ;
75 [label="gini = 0.0\nsamples = 2\nvalue = [0, 5]", fillcolor="#399de5ff"] ;
65 -> 75 ;
76 [label="age <= 7.0\ngini = 0.229\nsamples = 22\nvalue = [33, 5]", fillcolor="#e58139d8"] ;
64 -> 76 ;
77 [label="fare <= 8.081\ngini = 0.08\nsamples = 13\nvalue = [23, 1]", fillcolor="#e58139f4"] ;
76 -> 77 ;
78 [label="gini = 0.0\nsamples = 7\nvalue = [13, 0]", fillcolor="#e58139ff"] ;
77 -> 78 ;
79 [label="gini = 0.165\nsamples = 6\nvalue = [10, 1]", fillcolor="#e58139e6"] ;
77 -> 79 ;
80 [label="gini = 0.408\nsamples = 9\nvalue = [10, 4]", fillcolor="#e5813999"] ;
76 -> 80 ;
81 [label="gini = 0.0\nsamples = 4\nvalue = [0, 6]", fillcolor="#399de5ff"] ;
63 -> 81 ;
82 [label="cabin_letter <= 2.0\ngini = 0.142\nsamples = 21\nvalue = [24, 2]", fillcolor="#e58139ea"] ;
62 -> 82 ;
83 [label="pclass <= 2.5\ngini = 0.077\nsamples = 20\nvalue = [24, 1]", fillcolor="#e58139f4"] ;
82 -> 83 ;
84 [label="gini = 0.219\nsamples = 7\nvalue = [7, 1]", fillcolor="#e58139db"] ;
83 -> 84 ;
85 [label="gini = 0.0\nsamples = 13\nvalue = [17, 0]", fillcolor="#e58139ff"] ;
83 -> 85 ;
86 [label="gini = 0.0\nsamples = 1\nvalue = [0, 1]", fillcolor="#399de5ff"] ;
82 -> 86 ;
87 [label="fare <= 7.012\ngini = 0.122\nsamples = 63\nvalue = [86, 6]", fillcolor="#e58139ed"] ;
61 -> 87 ;
88 [label="gini = 0.0\nsamples = 1\nvalue = [0, 1]", fillcolor="#399de5ff"] ;
87 -> 88 ;
89 [label="parch <= 0.5\ngini = 0.104\nsamples = 62\nvalue = [86, 5]", fillcolor="#e58139f0"] ;
87 -> 89 ;
90 [label="fare <= 7.196\ngini = 0.067\nsamples = 59\nvalue = [84, 3]", fillcolor="#e58139f6"] ;
89 -> 90 ;
91 [label="gini = 0.32\nsamples = 3\nvalue = [4, 1]", fillcolor="#e58139bf"] ;
90 -> 91 ;
92 [label="fare <= 8.994\ngini = 0.048\nsamples = 56\nvalue = [80, 2]", fillcolor="#e58139f9"] ;
90 -> 92 ;
93 [label="fare <= 8.356\ngini = 0.091\nsamples = 26\nvalue = [40, 2]", fillcolor="#e58139f2"] ;
92 -> 93 ;
94 [label="age <= 21.5\ngini = 0.049\nsamples = 24\nvalue = [39, 1]", fillcolor="#e58139f8"] ;
93 -> 94 ;
95 [label="gini = 0.165\nsamples = 5\nvalue = [10, 1]", fillcolor="#e58139e6"] ;
94 -> 95 ;
96 [label="gini = 0.0\nsamples = 19\nvalue = [29, 0]", fillcolor="#e58139ff"] ;
94 -> 96 ;
97 [label="gini = 0.5\nsamples = 2\nvalue = [1, 1]", fillcolor="#e5813900"] ;
93 -> 97 ;
98 [label="gini = 0.0\nsamples = 30\nvalue = [40, 0]", fillcolor="#e58139ff"] ;
92 -> 98 ;
99 [label="gini = 0.5\nsamples = 3\nvalue = [2, 2]", fillcolor="#e5813900"] ;
89 -> 99 ;
100 [label="pclass <= 1.5\ngini = 0.444\nsamples = 36\nvalue = [42, 21]", fillcolor="#e581397f"] ;
60 -> 100 ;
101 [label="gini = 0.245\nsamples = 4\nvalue = [1, 6]", fillcolor="#399de5d4"] ;
100 -> 101 ;
102 [label="age <= 32.25\ngini = 0.392\nsamples = 32\nvalue = [41, 15]", fillcolor="#e58139a2"] ;
100 -> 102 ;
103 [label="gini = 0.5\nsamples = 11\nvalue = [9, 9]", fillcolor="#e5813900"] ;
102 -> 103 ;
104 [label="age <= 36.25\ngini = 0.266\nsamples = 21\nvalue = [32, 6]", fillcolor="#e58139cf"] ;
102 -> 104 ;
105 [label="gini = 0.0\nsamples = 12\nvalue = [21, 0]", fillcolor="#e58139ff"] ;
104 -> 105 ;
106 [label="gini = 0.457\nsamples = 9\nvalue = [11, 6]", fillcolor="#e5813974"] ;
104 -> 106 ;
107 [label="gini = 0.0\nsamples = 2\nvalue = [0, 5]", fillcolor="#399de5ff"] ;
59 -> 107 ;
108 [label="fare <= 113.575\ngini = 0.079\nsamples = 44\nvalue = [70, 3]", fillcolor="#e58139f4"] ;
58 -> 108 ;
109 [label="age <= 61.5\ngini = 0.029\nsamples = 41\nvalue = [67, 1]", fillcolor="#e58139fb"] ;
108 -> 109 ;
110 [label="gini = 0.0\nsamples = 36\nvalue = [60, 0]", fillcolor="#e58139ff"] ;
109 -> 110 ;
111 [label="gini = 0.219\nsamples = 5\nvalue = [7, 1]", fillcolor="#e58139db"] ;
109 -> 111 ;
112 [label="gini = 0.48\nsamples = 3\nvalue = [3, 2]", fillcolor="#e5813955"] ;
108 -> 112 ;
}