digraph Tree {
node [shape=box, style="filled, rounded", color="black", fontname=helvetica] ;
edge [fontname=helvetica] ;
0 [label="sex <= 0.5\ngini = 0.454\nsamples = 440\nvalue = [448, 239]", fillcolor="#e5813977"] ;
1 [label="pclass <= 2.5\ngini = 0.46\nsamples = 147\nvalue = [83, 148]", fillcolor="#399de570"] ;
0 -> 1 [labeldistance=2.5, labelangle=45, headlabel="True"] ;
2 [label="fare <= 16.25\ngini = 0.129\nsamples = 68\nvalue = [7, 94]", fillcolor="#399de5ec"] ;
1 -> 2 ;
3 [label="gini = 0.469\nsamples = 9\nvalue = [6, 10]", fillcolor="#399de566"] ;
2 -> 3 ;
4 [label="age <= 49.0\ngini = 0.023\nsamples = 59\nvalue = [1, 84]", fillcolor="#399de5fc"] ;
2 -> 4 ;
5 [label="gini = 0.0\nsamples = 49\nvalue = [0, 72]", fillcolor="#399de5ff"] ;
4 -> 5 ;
6 [label="gini = 0.142\nsamples = 10\nvalue = [1, 12]", fillcolor="#399de5ea"] ;
4 -> 6 ;
7 [label="fare <= 23.35\ngini = 0.486\nsamples = 79\nvalue = [76, 54]", fillcolor="#e581394a"] ;
1 -> 7 ;
8 [label="fare <= 7.39\ngini = 0.499\nsamples = 66\nvalue = [56, 52]", fillcolor="#e5813912"] ;
7 -> 8 ;
9 [label="gini = 0.0\nsamples = 5\nvalue = [0, 7]", fillcolor="#399de5ff"] ;
8 -> 9 ;
10 [label="fare <= 15.373\ngini = 0.494\nsamples = 61\nvalue = [56, 45]", fillcolor="#e5813932"] ;
8 -> 10 ;
11 [label="age <= 22.5\ngini = 0.469\nsamples = 50\nvalue = [50, 30]", fillcolor="#e5813966"] ;
10 -> 11 ;
12 [label="fare <= 7.677\ngini = 0.496\nsamples = 36\nvalue = [31, 26]", fillcolor="#e5813929"] ;
11 -> 12 ;
13 [label="gini = 0.0\nsamples = 2\nvalue = [4, 0]", fillcolor="#e58139ff"] ;
12 -> 13 ;
14 [label="fare <= 7.744\ngini = 0.5\nsamples = 34\nvalue = [27, 26]", fillcolor="#e5813909"] ;
12 -> 14 ;
15 [label="gini = 0.0\nsamples = 3\nvalue = [0, 5]", fillcolor="#399de5ff"] ;
14 -> 15 ;
16 [label="age <= 19.5\ngini = 0.492\nsamples = 31\nvalue = [27, 21]", fillcolor="#e5813939"] ;
14 -> 16 ;
17 [label="age <= 14.75\ngini = 0.499\nsamples = 26\nvalue = [22, 20]", fillcolor="#e5813917"] ;
16 -> 17 ;
18 [label="age <= 2.0\ngini = 0.472\nsamples = 19\nvalue = [21, 13]", fillcolor="#e5813961"] ;
17 -> 18 ;
19 [label="fare <= 13.715\ngini = 0.491\nsamples = 16\nvalue = [17, 13]", fillcolor="#e581393c"] ;
18 -> 19 ;
20 [label="parch <= 1.5\ngini = 0.485\nsamples = 15\nvalue = [17, 12]", fillcolor="#e581394b"] ;
19 -> 20 ;
21 [label="fare <= 7.833\ngini = 0.494\nsamples = 14\nvalue = [15, 12]", fillcolor="#e5813933"] ;
20 -> 21 ;
22 [label="gini = 0.499\nsamples = 9\nvalue = [9, 10]", fillcolor="#399de519"] ;
21 -> 22 ;
23 [label="gini = 0.375\nsamples = 5\nvalue = [6, 2]", fillcolor="#e58139aa"] ;
21 -> 23 ;
24 [label="gini = 0.0\nsamples = 1\nvalue = [2, 0]", fillcolor="#e58139ff"] ;
20 -> 24 ;
25 [label="gini = 0.0\nsamples = 1\nvalue = [0, 1]", fillcolor="#399de5ff"] ;
19 -> 25 ;
26 [label="gini = 0.0\nsamples = 3\nvalue = [4, 0]", fillcolor="#e58139ff"] ;
18 -> 26 ;
27 [label="gini = 0.219\nsamples = 7\nvalue = [1, 7]", fillcolor="#399de5db"] ;
17 -> 27 ;
28 [label="gini = 0.278\nsamples = 5\nvalue = [5, 1]", fillcolor="#e58139cc"] ;
16 -> 28 ;
29 [label="age <= 54.0\ngini = 0.287\nsamples = 14\nvalue = [19, 4]", fillcolor="#e58139c9"] ;
11 -> 29 ;
30 [label="fare <= 14.85\ngini = 0.236\nsamples = 13\nvalue = [19, 3]", fillcolor="#e58139d7"] ;
29 -> 30 ;
31 [label="fare <= 13.942\ngini = 0.172\nsamples = 12\nvalue = [19, 2]", fillcolor="#e58139e4"] ;
30 -> 31 ;
32 [label="gini = 0.105\nsamples = 10\nvalue = [17, 1]", fillcolor="#e58139f0"] ;
31 -> 32 ;
33 [label="gini = 0.444\nsamples = 2\nvalue = [2, 1]", fillcolor="#e581397f"] ;
31 -> 33 ;
34 [label="gini = 0.0\nsamples = 1\nvalue = [0, 1]", fillcolor="#399de5ff"] ;
30 -> 34 ;
35 [label="gini = 0.0\nsamples = 1\nvalue = [0, 1]", fillcolor="#399de5ff"] ;
29 -> 35 ;
36 [label="gini = 0.408\nsamples = 11\nvalue = [6, 15]", fillcolor="#399de599"] ;
10 -> 36 ;
37 [label="sibsp <= 3.5\ngini = 0.165\nsamples = 13\nvalue = [20, 2]", fillcolor="#e58139e6"] ;
7 -> 37 ;
38 [label="gini = 0.0\nsamples = 9\nvalue = [16, 0]", fillcolor="#e58139ff"] ;
37 -> 38 ;
39 [label="gini = 0.444\nsamples = 4\nvalue = [4, 2]", fillcolor="#e581397f"] ;
37 -> 39 ;
40 [label="cabin_number <= 24.5\ngini = 0.319\nsamples = 293\nvalue = [365, 91]", fillcolor="#e58139bf"] ;
0 -> 40 [labeldistance=2.5, labelangle=-45, headlabel="False"] ;
41 [label="parch <= 0.5\ngini = 0.27\nsamples = 261\nvalue = [339, 65]", fillcolor="#e58139ce"] ;
40 -> 41 ;
42 [label="age <= 22.5\ngini = 0.231\nsamples = 226\nvalue = [299, 46]", fillcolor="#e58139d8"] ;
41 -> 42 ;
43 [label="age <= 18.75\ngini = 0.285\nsamples = 105\nvalue = [130, 27]", fillcolor="#e58139ca"] ;
42 -> 43 ;
44 [label="age <= 15.0\ngini = 0.201\nsamples = 75\nvalue = [102, 13]", fillcolor="#e58139de"] ;
43 -> 44 ;
45 [label="age <= 7.0\ngini = 0.238\nsamples = 61\nvalue = [75, 12]", fillcolor="#e58139d6"] ;
44 -> 45 ;
46 [label="fare <= 7.827\ngini = 0.223\nsamples = 60\nvalue = [75, 11]", fillcolor="#e58139da"] ;
45 -> 46 ;
47 [label="fare <= 7.762\ngini = 0.289\nsamples = 27\nvalue = [33, 7]", fillcolor="#e58139c9"] ;
46 -> 47 ;
48 [label="fare <= 7.65\ngini = 0.229\nsamples = 26\nvalue = [33, 5]", fillcolor="#e58139d8"] ;
47 -> 48 ;
49 [label="fare <= 7.24\ngini = 0.175\nsamples = 21\nvalue = [28, 3]", fillcolor="#e58139e4"] ;
48 -> 49 ;
50 [label="fare <= 7.025\ngini = 0.236\nsamples = 15\nvalue = [19, 3]", fillcolor="#e58139d7"] ;
49 -> 50 ;
51 [label="gini = 0.0\nsamples = 5\nvalue = [7, 0]", fillcolor="#e58139ff"] ;
50 -> 51 ;
52 [label="gini = 0.32\nsamples = 10\nvalue = [12, 3]", fillcolor="#e58139bf"] ;
50 -> 52 ;
53 [label="gini = 0.0\nsamples = 6\nvalue = [9, 0]", fillcolor="#e58139ff"] ;
49 -> 53 ;
54 [label="gini = 0.408\nsamples = 5\nvalue = [5, 2]", fillcolor="#e5813999"] ;
48 -> 54 ;
55 [label="gini = 0.0\nsamples = 1\nvalue = [0, 2]", fillcolor="#399de5ff"] ;
47 -> 55 ;
56 [label="fare <= 8.081\ngini = 0.159\nsamples = 33\nvalue = [42, 4]", fillcolor="#e58139e7"] ;
46 -> 56 ;
57 [label="gini = 0.0\nsamples = 12\nvalue = [19, 0]", fillcolor="#e58139ff"] ;
56 -> 57 ;
58 [label="fare <= 14.158\ngini = 0.252\nsamples = 21\nvalue = [23, 4]", fillcolor="#e58139d3"] ;
56 -> 58 ;
59 [label="gini = 0.444\nsamples = 3\nvalue = [1, 2]", fillcolor="#399de57f"] ;
58 -> 59 ;
60 [label="fare <= 24.946\ngini = 0.153\nsamples = 18\nvalue = [22, 2]", fillcolor="#e58139e8"] ;
58 -> 60 ;
61 [label="gini = 0.0\nsamples = 9\nvalue = [12, 0]", fillcolor="#e58139ff"] ;
60 -> 61 ;
62 [label="gini = 0.278\nsamples = 9\nvalue = [10, 2]", fillcolor="#e58139cc"] ;
60 -> 62 ;
63 [label="gini = 0.0\nsamples = 1\nvalue = [0, 1]", fillcolor="#399de5ff"] ;
45 -> 63 ;
64 [label="fare <= 8.175\ngini = 0.069\nsamples = 14\nvalue = [27, 1]", fillcolor="#e58139f6"] ;
44 -> 64 ;
65 [label="gini = 0.18\nsamples = 5\nvalue = [9, 1]", fillcolor="#e58139e3"] ;
64 -> 65 ;
66 [label="gini = 0.0\nsamples = 9\nvalue = [18, 0]", fillcolor="#e58139ff"] ;
64 -> 66 ;
67 [label="fare <= 7.91\ngini = 0.444\nsamples = 30\nvalue = [28, 14]", fillcolor="#e581397f"] ;
43 -> 67 ;
68 [label="fare <= 7.825\ngini = 0.34\nsamples = 19\nvalue = [18, 5]", fillcolor="#e58139b8"] ;
67 -> 68 ;
69 [label="fare <= 7.785\ngini = 0.43\nsamples = 13\nvalue = [11, 5]", fillcolor="#e581398b"] ;
68 -> 69 ;
70 [label="embarked <= 1.0\ngini = 0.337\nsamples = 12\nvalue = [11, 3]", fillcolor="#e58139b9"] ;
69 -> 70 ;
71 [label="gini = 0.5\nsamples = 3\nvalue = [2, 2]", fillcolor="#e5813900"] ;
70 -> 71 ;
72 [label="gini = 0.18\nsamples = 9\nvalue = [9, 1]", fillcolor="#e58139e3"] ;
70 -> 72 ;
73 [label="gini = 0.0\nsamples = 1\nvalue = [0, 2]", fillcolor="#399de5ff"] ;
69 -> 73 ;
74 [label="gini = 0.0\nsamples = 6\nvalue = [7, 0]", fillcolor="#e58139ff"] ;
68 -> 74 ;
75 [label="gini = 0.499\nsamples = 11\nvalue = [10, 9]", fillcolor="#e5813919"] ;
67 -> 75 ;
76 [label="fare <= 113.575\ngini = 0.182\nsamples = 121\nvalue = [169, 19]", fillcolor="#e58139e2"] ;
42 -> 76 ;
77 [label="cabin_number <= 11.5\ngini = 0.174\nsamples = 120\nvalue = [169, 18]", fillcolor="#e58139e4"] ;
76 -> 77 ;
78 [label="age <= 39.5\ngini = 0.157\nsamples = 112\nvalue = [160, 15]", fillcolor="#e58139e7"] ;
77 -> 78 ;
79 [label="age <= 36.25\ngini = 0.193\nsamples = 80\nvalue = [115, 14]", fillcolor="#e58139e0"] ;
78 -> 79 ;
80 [label="fare <= 7.825\ngini = 0.164\nsamples = 74\nvalue = [111, 11]", fillcolor="#e58139e6"] ;
79 -> 80 ;
81 [label="fare <= 7.762\ngini = 0.363\nsamples = 14\nvalue = [16, 5]", fillcolor="#e58139af"] ;
80 -> 81 ;
82 [label="gini = 0.0\nsamples = 6\nvalue = [9, 0]", fillcolor="#e58139ff"] ;
81 -> 82 ;
83 [label="gini = 0.486\nsamples = 8\nvalue = [7, 5]", fillcolor="#e5813949"] ;
81 -> 83 ;
84 [label="embarked <= 1.0\ngini = 0.112\nsamples = 60\nvalue = [95, 6]", fillcolor="#e58139ef"] ;
80 -> 84 ;
85 [label="gini = 0.32\nsamples = 7\nvalue = [12, 3]", fillcolor="#e58139bf"] ;
84 -> 85 ;
86 [label="fare <= 26.275\ngini = 0.067\nsamples = 53\nvalue = [83, 3]", fillcolor="#e58139f6"] ;
84 -> 86 ;
87 [label="fare <= 8.994\ngini = 0.028\nsamples = 45\nvalue = [70, 1]", fillcolor="#e58139fb"] ;
86 -> 87 ;
88 [label="fare <= 8.513\ngini = 0.067\nsamples = 20\nvalue = [28, 1]", fillcolor="#e58139f6"] ;
87 -> 88 ;
89 [label="gini = 0.0\nsamples = 18\nvalue = [27, 0]", fillcolor="#e58139ff"] ;
88 -> 89 ;
90 [label="gini = 0.5\nsamples = 2\nvalue = [1, 1]", fillcolor="#e5813900"] ;
88 -> 90 ;
91 [label="gini = 0.0\nsamples = 25\nvalue = [42, 0]", fillcolor="#e58139ff"] ;
87 -> 91 ;
92 [label="gini = 0.231\nsamples = 8\nvalue = [13, 2]", fillcolor="#e58139d8"] ;
86 -> 92 ;
93 [label="gini = 0.49\nsamples = 6\nvalue = [4, 3]", fillcolor="#e5813940"] ;
79 -> 93 ;
94 [label="age <= 61.5\ngini = 0.043\nsamples = 32\nvalue = [45, 1]", fillcolor="#e58139f9"] ;
78 -> 94 ;
95 [label="gini = 0.0\nsamples = 28\nvalue = [41, 0]", fillcolor="#e58139ff"] ;
94 -> 95 ;
96 [label="gini = 0.32\nsamples = 4\nvalue = [4, 1]", fillcolor="#e58139bf"] ;
94 -> 96 ;
97 [label="gini = 0.375\nsamples = 8\nvalue = [9, 3]", fillcolor="#e58139aa"] ;
77 -> 97 ;
98 [label="gini = 0.0\nsamples = 1\nvalue = [0, 1]", fillcolor="#399de5ff"] ;
76 -> 98 ;
99 [label="fare <= 22.013\ngini = 0.437\nsamples = 35\nvalue = [40, 19]", fillcolor="#e5813986"] ;
41 -> 99 ;
100 [label="gini = 0.153\nsamples = 7\nvalue = [1, 11]", fillcolor="#399de5e8"] ;
99 -> 100 ;
101 [label="cabin_letter <= 4.5\ngini = 0.282\nsamples = 28\nvalue = [39, 8]", fillcolor="#e58139cb"] ;
99 -> 101 ;
102 [label="embarked <= 1.0\ngini = 0.231\nsamples = 27\nvalue = [39, 6]", fillcolor="#e58139d8"] ;
101 -> 102 ;
103 [label="gini = 0.444\nsamples = 2\nvalue = [1, 2]", fillcolor="#399de57f"] ;
102 -> 103 ;
104 [label="pclass <= 2.5\ngini = 0.172\nsamples = 25\nvalue = [38, 4]", fillcolor="#e58139e4"] ;
102 -> 104 ;
105 [label="gini = 0.332\nsamples = 9\nvalue = [15, 4]", fillcolor="#e58139bb"] ;
104 -> 105 ;
106 [label="gini = 0.0\nsamples = 16\nvalue = [23, 0]", fillcolor="#e58139ff"] ;
104 -> 106 ;
107 [label="gini = 0.0\nsamples = 1\nvalue = [0, 2]", fillcolor="#399de5ff"] ;
101 -> 107 ;
108 [label="age <= 37.0\ngini = 0.5\nsamples = 32\nvalue = [26, 26]", fillcolor="#e5813900"] ;
40 -> 108 ;
109 [label="cabin_number <= 43.5\ngini = 0.32\nsamples = 13\nvalue = [4, 16]", fillcolor="#399de5bf"] ;
108 -> 109 ;
110 [label="gini = 0.5\nsamples = 6\nvalue = [4, 4]", fillcolor="#e5813900"] ;
109 -> 110 ;
111 [label="gini = 0.0\nsamples = 7\nvalue = [0, 12]", fillcolor="#399de5ff"] ;
109 -> 111 ;
112 [label="cabin_number <= 35.5\ngini = 0.43\nsamples = 19\nvalue = [22, 10]", fillcolor="#e581398b"] ;
108 -> 112 ;
113 [label="gini = 0.198\nsamples = 5\nvalue = [1, 8]", fillcolor="#399de5df"] ;
112 -> 113 ;
114 [label="cabin_number <= 91.5\ngini = 0.159\nsamples = 14\nvalue = [21, 2]", fillcolor="#e58139e7"] ;
112 -> 114 ;
115 [label="gini = 0.0\nsamples = 13\nvalue = [21, 0]", fillcolor="#e58139ff"] ;
114 -> 115 ;
116 [label="gini = 0.0\nsamples = 1\nvalue = [0, 2]", fillcolor="#399de5ff"] ;
114 -> 116 ;
}